Language model created by QuickLM on Sat Jan 23 21:42:24 EST 2016
Copyright (c) 1996-2010 Carnegie Mellon University and Alexander I. Rudnicky

The model is in standard ARPA format, designed by Doug Paul while he was at MITRE.

The code that was used to produce this language model is available in Open Source.
Please visit http://www.speech.cs.cmu.edu/tools/ for more information

The (fixed) discount mass is 0.5. The backoffs are computed using the ratio method.
This model based on a corpus of 29 sentences and 50 words

\data\
ngram 1=50
ngram 2=87
ngram 3=64

\1-grams:
-0.9285 </s> -0.3010
-0.9285 <s> -0.2364
-2.0899 A -0.2975
-2.3909 ANY -0.2993
-2.3909 BEING -0.2466
-2.3909 BIRTHDAY -0.2993
-2.3909 BUT -0.2466
-2.3909 CHEER -0.2975
-2.3909 DID -0.2466
-2.3909 DO -0.2975
-2.3909 EMAIL -0.2466
-2.3909 FACEBOOK -0.2993
-2.3909 FIRST -0.2466
-2.3909 HACKER -0.2975
-2.3909 HAS -0.2975
-2.3909 HAVE -0.2993
-2.3909 HOW’S -0.2921
-2.0899 I -0.2975
-2.0899 IN -0.2364
-2.0899 IS -0.2364
-2.3909 IT -0.2466
-2.3909 JASPER -0.2466
-2.3909 JOKE -0.2466
-2.3909 KNOCK-KNOCK -0.2993
-2.3909 LIFEBE -0.2466
-2.3909 LIKE -0.2993
-2.3909 LOVE -0.2993
-2.0899 ME -0.2957
-2.3909 MEANING -0.2975
-2.0899 NEWS -0.2466
-2.3909 NOTIFICATIONS -0.2466
-2.3909 NOW -0.2466
-2.0899 OF -0.2445
-2.0899 ON -0.2445
-2.3909 RIGHT -0.2466
-2.3909 SAY -0.2466
-2.3909 TELL -0.2975
-1.6920 THE -0.2903
-2.3909 TIME -0.2466
-2.3909 TODAY -0.2466
-2.3909 TOMORROW -0.2466
-2.3909 UP -0.2466
-2.0899 WEATHER -0.2445
-2.0899 WHAT -0.2425
-1.7889 WHAT’S -0.2848
-2.3909 WHICH -0.2466
-2.3909 WHO -0.2993
-2.3909 WITH -0.2466
-2.3909 WORK -0.2466
-2.3909 YOU -0.2466

\2-grams:
-1.7634 <s> BEING 0.0000
-1.7634 <s> BUT 0.0000
-1.7634 <s> CHEER 0.0000
-1.7634 <s> DID 0.0000
-1.7634 <s> DO 0.0000
-1.7634 <s> FACEBOOK 0.0000
-1.7634 <s> FIRST 0.0000
-1.7634 <s> HOW’S 0.0000
-1.7634 <s> I -0.1761
-1.7634 <s> IN -0.1761
-1.7634 <s> IS -0.1761
-1.7634 <s> IT 0.0000
-1.7634 <s> JASPER 0.0000
-1.7634 <s> NOW 0.0000
-1.7634 <s> OF -0.1761
-1.7634 <s> ON -0.1761
-1.7634 <s> RIGHT 0.0000
-1.7634 <s> SAY 0.0000
-1.7634 <s> TELL 0.0000
-1.4624 <s> WHAT 0.0000
-1.1614 <s> WHAT’S 0.0000
-1.7634 <s> WHICH 0.0000
-1.7634 <s> WHO 0.0000
-1.7634 <s> WITH 0.0000
-1.7634 <s> WORK 0.0000
-0.6021 A BIRTHDAY 0.0000
-0.6021 A KNOCK-KNOCK 0.0000
-0.3010 ANY EMAIL 0.0000
-0.3010 BEING </s> -0.3010
-0.3010 BIRTHDAY TODAY 0.0000
-0.3010 BUT </s> -0.3010
-0.3010 CHEER ME -0.1761
-0.3010 DID </s> -0.3010
-0.3010 DO I -0.1761
-0.3010 EMAIL </s> -0.3010
-0.3010 FACEBOOK NOTIFICATIONS 0.0000
-0.3010 FIRST </s> -0.3010
-0.3010 HACKER NEWS 0.0000
-0.3010 HAS A -0.1761
-0.3010 HAVE ANY 0.0000
-0.3010 HOW’S THE -0.2041
-0.6021 I HAVE 0.0000
-0.6021 I LOVE 0.0000
-0.6021 IN </s> -0.3010
-0.6021 IN THE -0.2553
-0.6021 IS </s> -0.3010
-0.6021 IS THE -0.2553
-0.3010 IT </s> -0.3010
-0.3010 JASPER </s> -0.3010
-0.3010 JOKE </s> -0.3010
-0.3010 KNOCK-KNOCK JOKE 0.0000
-0.3010 LIFEBE </s> -0.3010
-0.3010 LIKE TOMORROW 0.0000
-0.3010 LOVE YOU 0.0000
-0.6021 ME A -0.1761
-0.6021 ME UP 0.0000
-0.3010 MEANING OF -0.1761
-0.3010 NEWS </s> -0.3010
-0.3010 NOTIFICATIONS </s> -0.3010
-0.3010 NOW </s> -0.3010
-0.6021 OF </s> -0.3010
-0.6021 OF LIFEBE 0.0000
-0.6021 ON </s> -0.3010
-0.6021 ON HACKER 0.0000
-0.3010 RIGHT </s> -0.3010
-0.3010 SAY </s> -0.3010
-0.3010 TELL ME -0.1761
-1.0000 THE MEANING 0.0000
-1.0000 THE NEWS 0.0000
-1.0000 THE TIME 0.0000
-0.6990 THE WEATHER 0.0000
-0.3010 TIME </s> -0.3010
-0.3010 TODAY </s> -0.3010
-0.3010 TOMORROW </s> -0.3010
-0.3010 UP </s> -0.3010
-0.6021 WEATHER </s> -0.3010
-0.6021 WEATHER LIKE 0.0000
-0.6021 WHAT </s> -0.3010
-0.6021 WHAT IS -0.1761
-0.9031 WHAT’S IN -0.1761
-0.9031 WHAT’S ON -0.1761
-0.6021 WHAT’S THE -0.1461
-0.3010 WHICH </s> -0.3010
-0.3010 WHO HAS 0.0000
-0.3010 WITH </s> -0.3010
-0.3010 WORK </s> -0.3010
-0.3010 YOU </s> -0.3010

\3-grams:
-0.3010 <s> BEING </s>
-0.3010 <s> BUT </s>
-0.3010 <s> CHEER ME
-0.3010 <s> DID </s>
-0.3010 <s> DO I
-0.3010 <s> FACEBOOK NOTIFICATIONS
-0.3010 <s> FIRST </s>
-0.3010 <s> HOW’S THE
-0.3010 <s> I LOVE
-0.3010 <s> IN </s>
-0.3010 <s> IS </s>
-0.3010 <s> IT </s>
-0.3010 <s> JASPER </s>
-0.3010 <s> NOW </s>
-0.3010 <s> OF </s>
-0.3010 <s> ON </s>
-0.3010 <s> RIGHT </s>
-0.3010 <s> SAY </s>
-0.3010 <s> TELL ME
-0.6021 <s> WHAT </s>
-0.6021 <s> WHAT IS
-0.9031 <s> WHAT’S IN
-0.9031 <s> WHAT’S ON
-0.6021 <s> WHAT’S THE
-0.3010 <s> WHICH </s>
-0.3010 <s> WHO HAS
-0.3010 <s> WITH </s>
-0.3010 <s> WORK </s>
-0.3010 A BIRTHDAY TODAY
-0.3010 A KNOCK-KNOCK JOKE
-0.3010 ANY EMAIL </s>
-0.3010 BIRTHDAY TODAY </s>
-0.3010 CHEER ME UP
-0.3010 DO I HAVE
-0.3010 FACEBOOK NOTIFICATIONS </s>
-0.3010 HACKER NEWS </s>
-0.3010 HAS A BIRTHDAY
-0.3010 HAVE ANY EMAIL
-0.3010 HOW’S THE WEATHER
-0.3010 I HAVE ANY
-0.3010 I LOVE YOU
-0.3010 IN THE NEWS
-0.3010 IS THE MEANING
-0.3010 KNOCK-KNOCK JOKE </s>
-0.3010 LIKE TOMORROW </s>
-0.3010 LOVE YOU </s>
-0.3010 ME A KNOCK-KNOCK
-0.3010 ME UP </s>
-0.3010 MEANING OF LIFEBE
-0.3010 OF LIFEBE </s>
-0.3010 ON HACKER NEWS
-0.3010 TELL ME A
-0.3010 THE MEANING OF
-0.3010 THE NEWS </s>
-0.3010 THE TIME </s>
-0.6021 THE WEATHER </s>
-0.6021 THE WEATHER LIKE
-0.3010 WEATHER LIKE TOMORROW
-0.3010 WHAT IS THE
-0.3010 WHAT’S IN THE
-0.3010 WHAT’S ON HACKER
-0.6021 WHAT’S THE TIME
-0.6021 WHAT’S THE WEATHER
-0.3010 WHO HAS A

\end\
