Language model created by QuickLM on Tue Jan 26 22:09:20 EST 2016
Copyright (c) 1996-2010 Carnegie Mellon University and Alexander I. Rudnicky

The model is in standard ARPA format, designed by Doug Paul while he was at MITRE.

The code that was used to produce this language model is available in Open Source.
Please visit http://www.speech.cs.cmu.edu/tools/ for more information

The (fixed) discount mass is 0.5. The backoffs are computed using the ratio method.
This model based on a corpus of 36 sentences and 39 words

\data\
ngram 1=39
ngram 2=74
ngram 3=38

\1-grams:
-0.7861 </s> -0.3010
-0.7861 <s> -0.2211
-2.3424 BE -0.2234
-2.3424 BEING -0.2234
-2.3424 BIRTHDAY -0.2234
-2.3424 BUT -0.2234
-2.3424 CHARLIE -0.2234
-2.3424 CHEER -0.2234
-2.3424 DID -0.2234
-2.3424 EMAIL -0.2234
-2.3424 FACEBOOK -0.2234
-2.3424 FIRST -0.2234
-2.3424 HACKER -0.2234
-2.3424 IN -0.2234
-2.3424 IS -0.2234
-2.3424 IT -0.2234
-2.3424 JOKE -0.2234
-2.3424 KNOCK-KNOCK -0.2234
-2.3424 LIFE -0.2234
-2.3424 LOVE -0.2234
-2.3424 MEANING -0.2971
-2.3424 NEWS -0.2234
-2.3424 NOTIFICATIONS -0.2234
-2.3424 NOW -0.2234
-2.0414 OF -0.2211
-2.3424 ON -0.2234
-2.3424 RIGHT -0.2234
-2.3424 SAY -0.2234
-2.3424 STOCKS -0.2234
-2.3424 TIME -0.2234
-2.3424 TOMORROW -0.2234
-2.3424 TONIGHT -0.2234
-2.3424 UP -0.2234
-2.3424 WEATHER -0.2234
-2.3424 WHAT -0.2234
-2.3424 WHICH -0.2234
-2.3424 WITH -0.2234
-2.3424 WORK -0.2234
-2.3424 YOU -0.2234

\2-grams:
-1.8573 <s> BE 0.0000
-1.8573 <s> BEING 0.0000
-1.8573 <s> BIRTHDAY 0.0000
-1.8573 <s> BUT 0.0000
-1.8573 <s> CHARLIE 0.0000
-1.8573 <s> CHEER 0.0000
-1.8573 <s> DID 0.0000
-1.8573 <s> EMAIL 0.0000
-1.8573 <s> FACEBOOK 0.0000
-1.8573 <s> FIRST 0.0000
-1.8573 <s> HACKER 0.0000
-1.8573 <s> IN 0.0000
-1.8573 <s> IS 0.0000
-1.8573 <s> IT 0.0000
-1.8573 <s> JOKE 0.0000
-1.8573 <s> KNOCK-KNOCK 0.0000
-1.8573 <s> LOVE 0.0000
-1.8573 <s> MEANING 0.0000
-1.8573 <s> NEWS 0.0000
-1.8573 <s> NOTIFICATIONS 0.0000
-1.8573 <s> NOW 0.0000
-1.8573 <s> OF -0.1761
-1.8573 <s> ON 0.0000
-1.8573 <s> RIGHT 0.0000
-1.8573 <s> SAY 0.0000
-1.8573 <s> STOCKS 0.0000
-1.8573 <s> TIME 0.0000
-1.8573 <s> TOMORROW 0.0000
-1.8573 <s> TONIGHT 0.0000
-1.8573 <s> UP 0.0000
-1.8573 <s> WEATHER 0.0000
-1.8573 <s> WHAT 0.0000
-1.8573 <s> WHICH 0.0000
-1.8573 <s> WITH 0.0000
-1.8573 <s> WORK 0.0000
-1.8573 <s> YOU 0.0000
-0.3010 BE </s> -0.3010
-0.3010 BEING </s> -0.3010
-0.3010 BIRTHDAY </s> -0.3010
-0.3010 BUT </s> -0.3010
-0.3010 CHARLIE </s> -0.3010
-0.3010 CHEER </s> -0.3010
-0.3010 DID </s> -0.3010
-0.3010 EMAIL </s> -0.3010
-0.3010 FACEBOOK </s> -0.3010
-0.3010 FIRST </s> -0.3010
-0.3010 HACKER </s> -0.3010
-0.3010 IN </s> -0.3010
-0.3010 IS </s> -0.3010
-0.3010 IT </s> -0.3010
-0.3010 JOKE </s> -0.3010
-0.3010 KNOCK-KNOCK </s> -0.3010
-0.3010 LIFE </s> -0.3010
-0.3010 LOVE </s> -0.3010
-0.3010 MEANING OF -0.1761
-0.3010 NEWS </s> -0.3010
-0.3010 NOTIFICATIONS </s> -0.3010
-0.3010 NOW </s> -0.3010
-0.6021 OF </s> -0.3010
-0.6021 OF LIFE 0.0000
-0.3010 ON </s> -0.3010
-0.3010 RIGHT </s> -0.3010
-0.3010 SAY </s> -0.3010
-0.3010 STOCKS </s> -0.3010
-0.3010 TIME </s> -0.3010
-0.3010 TOMORROW </s> -0.3010
-0.3010 TONIGHT </s> -0.3010
-0.3010 UP </s> -0.3010
-0.3010 WEATHER </s> -0.3010
-0.3010 WHAT </s> -0.3010
-0.3010 WHICH </s> -0.3010
-0.3010 WITH </s> -0.3010
-0.3010 WORK </s> -0.3010
-0.3010 YOU </s> -0.3010

\3-grams:
-0.3010 <s> BE </s>
-0.3010 <s> BEING </s>
-0.3010 <s> BIRTHDAY </s>
-0.3010 <s> BUT </s>
-0.3010 <s> CHARLIE </s>
-0.3010 <s> CHEER </s>
-0.3010 <s> DID </s>
-0.3010 <s> EMAIL </s>
-0.3010 <s> FACEBOOK </s>
-0.3010 <s> FIRST </s>
-0.3010 <s> HACKER </s>
-0.3010 <s> IN </s>
-0.3010 <s> IS </s>
-0.3010 <s> IT </s>
-0.3010 <s> JOKE </s>
-0.3010 <s> KNOCK-KNOCK </s>
-0.3010 <s> LOVE </s>
-0.3010 <s> MEANING OF
-0.3010 <s> NEWS </s>
-0.3010 <s> NOTIFICATIONS </s>
-0.3010 <s> NOW </s>
-0.3010 <s> OF </s>
-0.3010 <s> ON </s>
-0.3010 <s> RIGHT </s>
-0.3010 <s> SAY </s>
-0.3010 <s> STOCKS </s>
-0.3010 <s> TIME </s>
-0.3010 <s> TOMORROW </s>
-0.3010 <s> TONIGHT </s>
-0.3010 <s> UP </s>
-0.3010 <s> WEATHER </s>
-0.3010 <s> WHAT </s>
-0.3010 <s> WHICH </s>
-0.3010 <s> WITH </s>
-0.3010 <s> WORK </s>
-0.3010 <s> YOU </s>
-0.3010 MEANING OF LIFE
-0.3010 OF LIFE </s>

\end\
